<?xml version="1.0"?>
<opencv_storage>
<cascade>
  <stageType>BOOST</stageType>
  <featureType>LBP</featureType>
  <height>36</height>
  <width>36</width>
  <stageParams>
    <boostType>GAB</boostType>
    <minHitRate>9.9900001287460327e-01</minHitRate>
    <maxFalseAlarm>1.0000000149011612e-01</maxFalseAlarm>
    <weightTrimRate>9.4999998807907104e-01</weightTrimRate>
    <maxDepth>1</maxDepth>
    <maxWeakCount>20</maxWeakCount></stageParams>
  <featureParams>
    <maxCatCount>256</maxCatCount>
    <featSize>1</featSize></featureParams>
  <stageNum>10</stageNum>
  <stages>
    <!-- stage 0 -->
    <_>
      <maxWeakCount>16</maxWeakCount>
      <stageThreshold>-2.0041587352752686e+00</stageThreshold>
      <weakClassifiers>
        <_>
          <internalNodes>
            0 -1 47 -2 -3073 -747768353 -2097153 -1025 -69208065 -1 -1</internalNodes>
          <leafValues>
            -9.5349311828613281e-01 1.4522059261798859e-01</leafValues></_>
        <_>
          <internalNodes>
            0 -1 8 -270537842 -1056887 -313602235 -1048821 -611348497
            -17830961 -3149873 -1048625</internalNodes>
          <leafValues>
            -8.5965049266815186e-01 1.3560238480567932e-01</leafValues></_>
        <_>
          <internalNodes>
            0 -1 9 -389484672 -24578116 -940827660 -524496 -85329162
            -1678967827 -4203010 -5</internalNodes>
          <leafValues>
            -8.1527781486511230e-01 1.7692148685455322e-01</leafValues></_>
        <_>
          <internalNodes>
            0 -1 84 -573448204 1065287312 -232488 -4 -426788 -1090715906
            -1393562372 -19137025</internalNodes>
          <leafValues>
            -5.3419208526611328e-01 3.2221898436546326e-01</leafValues></_>
        <_>
          <internalNodes>
            0 -1 135 744963765 644413310 -143228961 -570491908
            2075639749 2145386109 -1358955020 -196612</internalNodes>
          <leafValues>
            -5.9184163808822632e-01 3.1832021474838257e-01</leafValues></_>
        <_>
          <internalNodes>
            0 -1 48 -117458474 787097570 -782793103 -1949123599
            -1107317769 213529551 620698309 -1056964649</internalNodes>
          <leafValues>
            -4.5884141325950623e-01 3.6238512396812439e-01</leafValues></_>
        <_>
          <internalNodes>
            0 -1 121 644818623 -1376388097 -69862401 1943961083
            2105506806 2138810591 -1107485601 -17270860</internalNodes>
          <leafValues>
            -5.2086961269378662e-01 2.8237652778625488e-01</leafValues></_>
        <_>
          <internalNodes>
            0 -1 23 82642916 1204719058 1145306823 1342090834 1256190911
            -404917873 -856822530 150895839</internalNodes>
          <leafValues>
            -6.8456280231475830e-01 2.1190762519836426e-01</leafValues></_>
        <_>
          <internalNodes>
            0 -1 43 -85984281 -1074588235 -44900369 -21053473
            -1143525008 -1109741742 1535482885 -144212393</internalNodes>
          <leafValues>
            -3.9381420612335205e-01 3.7215167284011841e-01</leafValues></_>
        <_>
          <internalNodes>
            0 -1 101 -1373966347 771193652 -2052065803 2140979189
            -1114671177 -1364198706 976812252 228567548</internalNodes>
          <leafValues>
            -4.2160093784332275e-01 3.1934127211570740e-01</leafValues></_>
        <_>
          <internalNodes>
            0 -1 79 -92295378 -2128945 679740972 234192766 1846488870
            -288367698 469323166 2122301318</internalNodes>
          <leafValues>
            -4.4012171030044556e-01 2.9308301210403442e-01</leafValues></_>
        <_>
          <internalNodes>
            0 -1 154 -1266734544 703135742 2132134356 -395805392
            1996321733 2061091215 -748833292 -1528496652</internalNodes>
          <leafValues>
            -6.6915106773376465e-01 1.9111761450767517e-01</leafValues></_>
        <_>
          <internalNodes>
            0 -1 159 1068985201 236640418 -547487886 112260352
            -905534645 -2032692598 -1779630444 -1901596020</internalNodes>
          <leafValues>
            -4.8463973402976990e-01 2.3261097073554993e-01</leafValues></_>
        <_>
          <internalNodes>
            0 -1 129 1962704395 2010804529 274060494 -260604646
            2137131786 -14839501 -1082066114 2104980295</internalNodes>
          <leafValues>
            -4.6745231747627258e-01 2.5839075446128845e-01</leafValues></_>
        <_>
          <internalNodes>
            0 -1 124 -336864442 815755902 -145135030 -1440289938
            176122101 -1414627197 -1806881584 -286851822</internalNodes>
          <leafValues>
            -4.0573018789291382e-01 3.1763115525245667e-01</leafValues></_>
        <_>
          <internalNodes>
            0 -1 158 536159205 639821659 -771501993 -2033522212
            -1429899031 -1946178636 -818960908 -1277166900</internalNodes>
          <leafValues>
            -4.1717129945755005e-01 2.8564068675041199e-01</leafValues></_></weakClassifiers></_>
    <!-- stage 1 -->
    <_>
      <maxWeakCount>20</maxWeakCount>
      <stageThreshold>-2.3714137077331543e+00</stageThreshold>
      <weakClassifiers>
        <_>
          <internalNodes>
            0 -1 22 -17 -2097185 -772931585 -9 -34604049 -67371269
            -542901249 -1049617</internalNodes>
          <leafValues>
            -9.0304338932037354e-01 -3.2651245594024658e-01</leafValues></_>
        <_>
          <internalNodes>
            0 -1 35 -38806050 -262274 -805568520 -33554561 -40902661
            -16782865 -6 -33554721</internalNodes>
          <leafValues>
            -7.2685015201568604e-01 -3.1108668074011803e-02</leafValues></_>
        <_>
          <internalNodes>
            0 -1 107 1931425791 2138969710 1729206775 -579982374
            -78021126 -537639681 -273352706 -234760</internalNodes>
          <leafValues>
            -5.0118410587310791e-01 2.4862986803054810e-01</leafValues></_>
        <_>
          <internalNodes>
            0 -1 69 -277502162 -8523804 595532479 2004575965 -1922120785
            -2053 702795726 -10092545</internalNodes>
          <leafValues>
            -4.2432668805122375e-01 3.0018550157546997e-01</leafValues></_>
        <_>
          <internalNodes>
            0 -1 153 259657252 574029311 -404849668 -419890868
            2111660020 -1410337853 -319357020 -323686412</internalNodes>
          <leafValues>
            -6.5778315067291260e-01 1.7395430803298950e-01</leafValues></_>
        <_>
          <internalNodes>
            0 -1 49 -545538113 -1691277449 -46883843 -614801413
            167122526 -1107334545 -878947468 2138194774</internalNodes>
          <leafValues>
            -3.4723448753356934e-01 3.2757890224456787e-01</leafValues></_>
        <_>
          <internalNodes>
            0 -1 136 2012995579 -1479887994 -530861212 1069797427
            983284667 -1983982913 1776790768 142344118</internalNodes>
          <leafValues>
            -3.6833775043487549e-01 2.9863318800926208e-01</leafValues></_>
        <_>
          <internalNodes>
            0 -1 89 1593809531 -1444955754 -21069890 -84099074
            2144296557 2142502398 -18153860 -1441812</internalNodes>
          <leafValues>
            -3.9213892817497253e-01 2.7136018872261047e-01</leafValues></_>
        <_>
          <internalNodes>
            0 -1 10 -1938944822 -275076144 -301611417 1869922902
            -18571278 -72801 -1190923 -574686381</internalNodes>
          <leafValues>
            -5.7562994956970215e-01 1.8649226427078247e-01</leafValues></_>
        <_>
          <internalNodes>
            0 -1 163 1001319957 641022192 -180241706 -1139524816
            433939125 -1372683601 182116093 217833208</internalNodes>
          <leafValues>
            -4.3381062150001526e-01 2.1533407270908356e-01</leafValues></_>
        <_>
          <internalNodes>
            0 -1 131 -337189214 783738651 -120074262 -88704065
            1686573671 -1888009713 -106954946 -59506817</internalNodes>
          <leafValues>
            -3.8714560866355896e-01 2.4892500042915344e-01</leafValues></_>
        <_>
          <internalNodes>
            0 -1 146 637301235 -1902480582 -142424705 2004415162
            293421014 -1082609442 1039065044 -1399810656</internalNodes>
          <leafValues>
            -5.6837284564971924e-01 1.6684156656265259e-01</leafValues></_>
        <_>
          <internalNodes>
            0 -1 45 756611548 -645276168 -633149613 1836447221
            -1533136641 -1549143653 1285941735 217186426</internalNodes>
          <leafValues>
            -4.1451671719551086e-01 2.1979893743991852e-01</leafValues></_>
        <_>
          <internalNodes>
            0 -1 56 1096646615 -90771915 -111878689 1047674000
            1375497076 -11785738 737765945 1073355446</internalNodes>
          <leafValues>
            -3.8791352510452271e-01 2.3299588263034821e-01</leafValues></_>
        <_>
          <internalNodes>
            0 -1 26 1979705298 -1359024504 1884389042 -1923885518
            -992018569 -309593685 104851572 217971454</internalNodes>
          <leafValues>
            -4.1234123706817627e-01 2.2097006440162659e-01</leafValues></_>
        <_>
          <internalNodes>
            0 -1 62 397935632 -1089168108 -58233195 765529685 -175103170
            1027256889 1851537503 883456075</internalNodes>
          <leafValues>
            -4.6079447865486145e-01 2.1610698103904724e-01</leafValues></_>
        <_>
          <internalNodes>
            0 -1 52 -2039935480 -346594519 -1482243320 1585115972
            2068114222 260045307 -370935484 -3162194</internalNodes>
          <leafValues>
            -6.8137866258621216e-01 1.2456986308097839e-01</leafValues></_>
        <_>
          <internalNodes>
            0 -1 113 -148789616 2054115622 -487089263 -1362693472
            -322169901 1811927775 -355269376 -1431171564</internalNodes>
          <leafValues>
            -3.8843026757240295e-01 2.2890453040599823e-01</leafValues></_>
        <_>
          <internalNodes>
            0 -1 97 -1345506755 1040478582 1724726847 1870611003
            1633385261 -374375580 2112356187 -50857089</internalNodes>
          <leafValues>
            -3.0349972844123840e-01 2.9970180988311768e-01</leafValues></_>
        <_>
          <internalNodes>
            0 -1 115 804748092 713610222 1771645930 -962265118
            1033984057 -592428499 -424116240 -621478924</internalNodes>
          <leafValues>
            -5.7003748416900635e-01 1.6383145749568939e-01</leafValues></_></weakClassifiers></_>
    <!-- stage 2 -->
    <_>
      <maxWeakCount>20</maxWeakCount>
      <stageThreshold>-2.4287581443786621e+00</stageThreshold>
      <weakClassifiers>
        <_>
          <internalNodes>
            0 -1 14 -1 -73729 -75644473 -2177 -102773793 -67117681
            -612373777 -1025</internalNodes>
          <leafValues>
            -8.8444894552230835e-01 -3.9672130346298218e-01</leafValues></_>
        <_>
          <internalNodes>
            0 -1 87 -67633345 -558305 -1796236417 -33685711 -68227921
            -70254977 -315884049 -197</internalNodes>
          <leafValues>
            -5.8814913034439087e-01 8.8345624506473541e-02</leafValues></_>
        <_>
          <internalNodes>
            0 -1 128 -131083 -1086803276 -2081197060 -338363650
            -1220808961 -1498172554 757060088 233028728</internalNodes>
          <leafValues>
            -4.6473190188407898e-01 1.9954127073287964e-01</leafValues></_>
        <_>
          <internalNodes>
            0 -1 55 2109181943 -1092710481 1960762922 -32071970
            832404326 -117478539 2092259455 2138462066</internalNodes>
          <leafValues>
            -4.4413501024246216e-01 1.9902166724205017e-01</leafValues></_>
        <_>
          <internalNodes>
            0 -1 32 -420567126 -542571544 111993735 2103442037
            -555062574 1609441710 -823656469 -545280403</internalNodes>
          <leafValues>
            -4.6865224838256836e-01 2.2220014035701752e-01</leafValues></_>
        <_>
          <internalNodes>
            0 -1 81 -5641233 527875384 164634673 -1544091608 -1082134609
            -268472449 388310182 1877861349</internalNodes>
          <leafValues>
            -2.6626685261726379e-01 3.1614947319030762e-01</leafValues></_>
        <_>
          <internalNodes>
            0 -1 156 1295768859 -2103396428 1465024374 877229037
            -1426875973 -1951420489 2147218928 214955820</internalNodes>
          <leafValues>
            -3.7922820448875427e-01 2.2062732279300690e-01</leafValues></_>
        <_>
          <internalNodes>
            0 -1 127 348335140 235424761 -1560451522 -1216562226
            2105352140 -336731826 -655412 -17500704</internalNodes>
          <leafValues>
            -4.5636025071144104e-01 1.7198994755744934e-01</leafValues></_>
        <_>
          <internalNodes>
            0 -1 108 926769202 501810028 -1121851907 -147383794
            939128031 2136813946 259660509 -5720884</internalNodes>
          <leafValues>
            -3.5370466113090515e-01 2.1137169003486633e-01</leafValues></_>
        <_>
          <internalNodes>
            0 -1 44 798715707 1865940799 761232174 -554762974 2003140427
            1870134207 1306479367 1147469607</internalNodes>
          <leafValues>
            -4.9084794521331787e-01 1.5711098909378052e-01</leafValues></_>
        <_>
          <internalNodes>
            0 -1 12 1155483457 -319060056 625042867 -303498282 100400255
            -1902300405 1189018342 1223534386</internalNodes>
          <leafValues>
            -4.0296131372451782e-01 1.8025977909564972e-01</leafValues></_>
        <_>
          <internalNodes>
            0 -1 95 1919942655 653188062 -55447810 -1074078858 467278710
            1013485717 2011151356 -201329700</internalNodes>
          <leafValues>
            -3.0420175194740295e-01 2.3253661394119263e-01</leafValues></_>
        <_>
          <internalNodes>
            0 -1 130 -7409828 -1126730961 -1124322085 -1088754782
            678301364 -1148241 -1398928276 -25432111</internalNodes>
          <leafValues>
            -2.8485217690467834e-01 2.5790882110595703e-01</leafValues></_>
        <_>
          <internalNodes>
            0 -1 112 -549914608 -822320320 -406408195 2002385774
            -1904247219 -391957572 -335742020 -29393411</internalNodes>
          <leafValues>
            -4.5454186201095581e-01 1.6999112069606781e-01</leafValues></_>
        <_>
          <internalNodes>
            0 -1 67 343108309 -1680322094 -1219373068 2142638975
            1610681980 -69185171 -381644588 1597917039</internalNodes>
          <leafValues>
            -3.3610814809799194e-01 2.2992660105228424e-01</leafValues></_>
        <_>
          <internalNodes>
            0 -1 102 -787957512 -642978070 -1885537441 1432697524
            -1241535246 -137043980 -1759396365 -171143552</internalNodes>
          <leafValues>
            -2.1308687329292297e-01 3.6099877953529358e-01</leafValues></_>
        <_>
          <internalNodes>
            0 -1 6 603983528 -1102517310 -479574381 1775148859
            -1018541914 -342203941 -1437832753 1674332431</internalNodes>
          <leafValues>
            -5.3001493215560913e-01 1.4757303893566132e-01</leafValues></_>
        <_>
          <internalNodes>
            0 -1 193 668335423 -268702225 1879039343 665316183
            1741552475 -81274049 1140847033 1145437239</internalNodes>
          <leafValues>
            -3.5051742196083069e-01 2.2378630936145782e-01</leafValues></_>
        <_>
          <internalNodes>
            0 -1 46 1587302072 -1708044880 -117805508 -1966254671
            777002450 -1356603265 -826405275 126618382</internalNodes>
          <leafValues>
            -3.6669066548347473e-01 2.0316380262374878e-01</leafValues></_>
        <_>
          <internalNodes>
            0 -1 105 1006104187 781901662 1808679018 -400233848
            2131457863 -34098519 -437759934 -27922474</internalNodes>
          <leafValues>
            -4.0365919470787048e-01 1.8549472093582153e-01</leafValues></_></weakClassifiers></_>
    <!-- stage 3 -->
    <_>
      <maxWeakCount>20</maxWeakCount>
      <stageThreshold>-2.6609129905700684e+00</stageThreshold>
      <weakClassifiers>
        <_>
          <internalNodes>
            0 -1 13 -2097185 -2209953 -2062720187 -133121 -33564449
            -1611673441 -58729754 -8193</internalNodes>
          <leafValues>
            -8.8514935970306396e-01 -5.4694485664367676e-01</leafValues></_>
        <_>
          <internalNodes>
            0 -1 42 -7743057 -16791606 -118859699 -17834109 -538121553
            -97934165 1894774783 -7340593</internalNodes>
          <leafValues>
            -6.2270838022232056e-01 -8.4356404840946198e-02</leafValues></_>
        <_>
          <internalNodes>
            0 -1 139 996924403 4781958 868220247 -70036517 -1201164553
            780905975 427489501 268408060</internalNodes>
          <leafValues>
            -3.6211085319519043e-01 2.2129340469837189e-01</leafValues></_>
        <_>
          <internalNodes>
            0 -1 147 947353823 1803434460 1970780655 -671596614
            -1875909889 2078704050 736940028 -1073957436</internalNodes>
          <leafValues>
            -4.0919023752212524e-01 1.9281610846519470e-01</leafValues></_>
        <_>
          <internalNodes>
            0 -1 119 -60309674 1059045350 -388060512 -465770390
            1731028212 -1006704609 -990600128 -268111006</internalNodes>
          <leafValues>
            -3.1526902318000793e-01 2.4972584843635559e-01</leafValues></_>
        <_>
          <internalNodes>
            0 -1 110 -164728797 -1631895787 -251041061 831679399
            2007420672 -3171727 -76218518 -550282985</internalNodes>
          <leafValues>
            -3.8486212491989136e-01 1.7905488610267639e-01</leafValues></_>
        <_>
          <internalNodes>
            0 -1 180 1261142575 675194667 -990546162 770014886
            1206910714 1962655742 1693939917 71291916</internalNodes>
          <leafValues>
            -3.5001033544540405e-01 2.0963053405284882e-01</leafValues></_>
        <_>
          <internalNodes>
            0 -1 75 1444481064 984410381 -381894023 -1075111117
            1919313710 -44303489 -970014609 487394831</internalNodes>
          <leafValues>
            -5.2901476621627808e-01 1.3225124776363373e-01</leafValues></_>
        <_>
          <internalNodes>
            0 -1 19 189333495 -1367793428 -114276746 -13355021 853084885
            -1906628042 1626609220 1563642903</internalNodes>
          <leafValues>
            -3.2002356648445129e-01 2.1748927235603333e-01</leafValues></_>
        <_>
          <internalNodes>
            0 -1 18 -1101963568 -433652282 262045438 1849589556
            -389444892 1268064794 2050874494 1861185371</internalNodes>
          <leafValues>
            -4.2866772413253784e-01 1.6328191757202148e-01</leafValues></_>
        <_>
          <internalNodes>
            0 -1 152 795610896 114979644 -1081101586 772812616
            2143227152 -80090150 -1175028844 -996872624</internalNodes>
          <leafValues>
            -6.8321585655212402e-01 9.5299877226352692e-02</leafValues></_>
        <_>
          <internalNodes>
            0 -1 59 -248105410 2136548182 1879676551 -53453785
            1250448192 -363308426 1430026064 1533427732</internalNodes>
          <leafValues>
            -4.3266546726226807e-01 1.4966869354248047e-01</leafValues></_>
        <_>
          <internalNodes>
            0 -1 138 876799794 690616726 -1004539716 752537820
            -1885910629 775049589 1144689140 215941052</internalNodes>
          <leafValues>
            -5.1448845863342285e-01 1.2474038451910019e-01</leafValues></_>
        <_>
          <internalNodes>
            0 -1 77 62436344 -1144450309 1943797492 -1176088620
            -1934352964 -1215664069 495407510 12946832</internalNodes>
          <leafValues>
            -3.5717910528182983e-01 1.8241004645824432e-01</leafValues></_>
        <_>
          <internalNodes>
            0 -1 92 1337323140 1063761476 664797200 582460448 2126981866
            1784384387 1239876132 1962599210</internalNodes>
          <leafValues>
            -4.1457480192184448e-01 1.5663896501064301e-01</leafValues></_>
        <_>
          <internalNodes>
            0 -1 1 -318846728 -1930753952 -1105864886 -741741611
            -992054821 -271605749 811496102 1287379711</internalNodes>
          <leafValues>
            -3.3158335089683533e-01 2.0393116772174835e-01</leafValues></_>
        <_>
          <internalNodes>
            0 -1 143 1059106560 2124964852 -135547942 -403936888
            493290332 -473282429 -1697285124 2129787836</internalNodes>
          <leafValues>
            -5.4256415367126465e-01 1.2228228896856308e-01</leafValues></_>
        <_>
          <internalNodes>
            0 -1 171 354497696 -9449328 -357103113 294288274 -1198279240
            -1274881335 -668078391 456917641</internalNodes>
          <leafValues>
            -2.6873275637626648e-01 2.4182561039924622e-01</leafValues></_>
        <_>
          <internalNodes>
            0 -1 15 217836033 750129785 -514062015 -1344351635
            -354434314 1223678287 1255008899 2115826639</internalNodes>
          <leafValues>
            -3.8565114140510559e-01 1.6863796114921570e-01</leafValues></_>
        <_>
          <internalNodes>
            0 -1 51 -563104805 -650612749 -1342251017 -113255041
            796345901 -49334 -371753572 2145279902</internalNodes>
          <leafValues>
            -2.0397703349590302e-01 3.2848542928695679e-01</leafValues></_></weakClassifiers></_>
    <!-- stage 4 -->
    <_>
      <maxWeakCount>20</maxWeakCount>
      <stageThreshold>-2.5845527648925781e+00</stageThreshold>
      <weakClassifiers>
        <_>
          <internalNodes>
            0 -1 66 -2621441 -139269 -414112833 -2053 -76547073
            -71574533 -5767169 -1029</internalNodes>
          <leafValues>
            -8.6052042245864868e-01 -3.1075111031532288e-01</leafValues></_>
        <_>
          <internalNodes>
            0 -1 40 -847777905 -101454903 -384340131 -43123209
            -307501137 -379977221 -1981358081 -807416861</internalNodes>
          <leafValues>
            -5.9981161355972290e-01 -9.3341901898384094e-02</leafValues></_>
        <_>
          <internalNodes>
            0 -1 74 -545521673 -8388801 -1672233096 -26577482 1273240627
            -17417802 1734163324 -9217162</internalNodes>
          <leafValues>
            -3.3366772532463074e-01 2.0449218153953552e-01</leafValues></_>
        <_>
          <internalNodes>
            0 -1 86 2136897495 209680786 1561426931 502353243
            -1722074233 -1392707672 143099080 199194874</internalNodes>
          <leafValues>
            -2.6400813460350037e-01 2.7431398630142212e-01</leafValues></_>
        <_>
          <internalNodes>
            0 -1 185 -1008079121 1937242047 2141052707 15794018
            930339791 129814475 -956884209 1101393899</internalNodes>
          <leafValues>
            -2.6758220791816711e-01 2.5582313537597656e-01</leafValues></_>
        <_>
          <internalNodes>
            0 -1 145 609499505 578609557 -1499998258 -405479488
            -369266180 -1156534866 -437656616 -153834252</internalNodes>
          <leafValues>
            -4.4109901785850525e-01 1.6712655127048492e-01</leafValues></_>
        <_>
          <internalNodes>
            0 -1 116 -4131753 2119954197 1381649018 1929600822
            1868503823 -352353689 -1094255618 2129869646</internalNodes>
          <leafValues>
            -3.0436497926712036e-01 2.1162554621696472e-01</leafValues></_>
        <_>
          <internalNodes>
            0 -1 63 427153695 783977138 -1084807216 234832694 1024149858
            -1393788885 -263382282 -998782594</internalNodes>
          <leafValues>
            -2.9047495126724243e-01 2.3855252563953400e-01</leafValues></_>
        <_>
          <internalNodes>
            0 -1 61 549860528 244664380 2130491345 -1609534687
            1448307638 -1074181199 985273909 -2136206439</internalNodes>
          <leafValues>
            -3.5999846458435059e-01 1.7572538554668427e-01</leafValues></_>
        <_>
          <internalNodes>
            0 -1 64 -605968758 -202769505 -1085315766 -61151317
            287705106 1207305828 854571346 2001888090</internalNodes>
          <leafValues>
            -3.0869764089584351e-01 2.0627199113368988e-01</leafValues></_>
        <_>
          <internalNodes>
            0 -1 169 1572173694 763783175 119010868 137291948 -226498322
            205727798 2063307761 1157625342</internalNodes>
          <leafValues>
            -3.2902452349662781e-01 1.9326123595237732e-01</leafValues></_>
        <_>
          <internalNodes>
            0 -1 78 -887676119 -12763225 698819085 226353805 -851772117
            -342108405 407923819 -18877656</internalNodes>
          <leafValues>
            -3.4402063488960266e-01 1.8532586097717285e-01</leafValues></_>
        <_>
          <internalNodes>
            0 -1 118 -6619564 1027570558 -730354570 137391144 1455165132
            749427386 1480458768 1458418514</internalNodes>
          <leafValues>
            -3.3684566617012024e-01 1.9243127107620239e-01</leafValues></_>
        <_>
          <internalNodes>
            0 -1 149 253440476 268176640 1836609399 636247415 685010343
            955948496 1345630143 784213556</internalNodes>
          <leafValues>
            -4.7117018699645996e-01 1.3813635706901550e-01</leafValues></_>
        <_>
          <internalNodes>
            0 -1 157 1261493792 1006074855 -1434021322 268491521
            2128996644 -619718039 975485932 1834777412</internalNodes>
          <leafValues>
            -5.1997876167297363e-01 1.2059033662080765e-01</leafValues></_>
        <_>
          <internalNodes>
            0 -1 36 220781614 234246141 811258354 1845288828 -1158797536
            -1083379377 -1687532676 420747348</internalNodes>
          <leafValues>
            -5.8375579118728638e-01 1.0034520179033279e-01</leafValues></_>
        <_>
          <internalNodes>
            0 -1 179 -525866758 1303653470 70102853 971337141 657106122
            609130757 -982385506 1851784332</internalNodes>
          <leafValues>
            -2.5558540225028992e-01 2.4640378355979919e-01</leafValues></_>
        <_>
          <internalNodes>
            0 -1 28 -1210271264 -803683196 906648012 2100501584
            1514515372 735089284 507295962 1967851308</internalNodes>
          <leafValues>
            -2.6785466074943542e-01 2.3548901081085205e-01</leafValues></_>
        <_>
          <internalNodes>
            0 -1 151 670314060 616756165 -1480400988 -1397167754
            1859533684 -449902539 -379689984 -386992032</internalNodes>
          <leafValues>
            -5.4178452491760254e-01 1.1305117607116699e-01</leafValues></_>
        <_>
          <internalNodes>
            0 -1 80 1753729274 920363646 -926126944 -487133206
            1497980845 -1765752277 -1027718932 601164676</internalNodes>
          <leafValues>
            -3.1679278612136841e-01 1.9305926561355591e-01</leafValues></_></weakClassifiers></_>
    <!-- stage 5 -->
    <_>
      <maxWeakCount>20</maxWeakCount>
      <stageThreshold>-2.5781714916229248e+00</stageThreshold>
      <weakClassifiers>
        <_>
          <internalNodes>
            0 -1 54 -2234385 -268453 662900491 -201361417 -70661
            -69540453 -538215441 -583013521</internalNodes>
          <leafValues>
            -8.9063590764999390e-01 -6.6386926174163818e-01</leafValues></_>
        <_>
          <internalNodes>
            0 -1 27 -570434305 -393338149 -1076000815 -314711098
            -809641522 -1392657429 -201483355 -285213697</internalNodes>
          <leafValues>
            -5.8852368593215942e-01 -1.0619726032018661e-01</leafValues></_>
        <_>
          <internalNodes>
            0 -1 178 -134233976 279290368 659532322 96468839 -565196088
            287372613 921670094 1074496683</internalNodes>
          <leafValues>
            -3.0090177059173584e-01 2.1236014366149902e-01</leafValues></_>
        <_>
          <internalNodes>
            0 -1 122 41160913 -1813292045 383483129 1068263586
            1072275407 -537446162 721000893 -1073859460</internalNodes>
          <leafValues>
            -3.0895861983299255e-01 2.1913826465606689e-01</leafValues></_>
        <_>
          <internalNodes>
            0 -1 50 218069243 -42243489 1549759956 1898732179 665128800
            -1585551077 -238803592 2066773542</internalNodes>
          <leafValues>
            -2.7033454179763794e-01 2.4368625879287720e-01</leafValues></_>
        <_>
          <internalNodes>
            0 -1 47 -1649586630 -1904608388 290761675 -564921481
            -133832749 1343625245 1941830559 -1613103273</internalNodes>
          <leafValues>
            -4.3261194229125977e-01 1.3255259394645691e-01</leafValues></_>
        <_>
          <internalNodes>
            0 -1 117 -1348289178 -218303270 -2236524 -165374780
            -1678252811 -1329980384 -637553744 -320564124</internalNodes>
          <leafValues>
            -2.8451699018478394e-01 2.2712430357933044e-01</leafValues></_>
        <_>
          <internalNodes>
            0 -1 188 1836547925 805109693 -671629466 754433863
            -276939409 -576989825 752844656 1148050237</internalNodes>
          <leafValues>
            -4.0361312031745911e-01 1.5177011489868164e-01</leafValues></_>
        <_>
          <internalNodes>
            0 -1 106 1086007378 -1183384598 554719440 -616138008
            1092734996 -69453776 1740963272 -67305844</internalNodes>
          <leafValues>
            -3.3700713515281677e-01 1.7990133166313171e-01</leafValues></_>
        <_>
          <internalNodes>
            0 -1 162 -2136846264 1972368245 -595141892 1242668834
            229572317 -1088206513 579399336 425869154</internalNodes>
          <leafValues>
            -3.7057283520698547e-01 1.6143380105495453e-01</leafValues></_>
        <_>
          <internalNodes>
            0 -1 103 2138042351 267751284 603074391 -1457918413
            1031671406 -1351155853 1605709370 1854930783</internalNodes>
          <leafValues>
            -2.0454536378383636e-01 2.9663637280464172e-01</leafValues></_>
        <_>
          <internalNodes>
            0 -1 182 -111768958 -539231457 471725400 1367554579
            -2011921622 1330154212 -1683765885 194031499</internalNodes>
          <leafValues>
            -2.5650539994239807e-01 2.3607511818408966e-01</leafValues></_>
        <_>
          <internalNodes>
            0 -1 164 2105065275 671353240 -1162611544 -1576304296
            -1847703121 -2003031049 99996144 -922878020</internalNodes>
          <leafValues>
            -3.4722331166267395e-01 1.6659951210021973e-01</leafValues></_>
        <_>
          <internalNodes>
            0 -1 176 -243276086 -106093572 419179051 -248816462
            -137497718 -674560364 -1223693909 -604008722</internalNodes>
          <leafValues>
            -1.2127167731523514e-01 5.1615446805953979e-01</leafValues></_>
        <_>
          <internalNodes>
            0 -1 189 799047505 -76350661 -102304882 1067274671
            1139103192 -342007361 729840062 589568309</internalNodes>
          <leafValues>
            -3.7843117117881775e-01 1.5847584605216980e-01</leafValues></_>
        <_>
          <internalNodes>
            0 -1 109 -1006923021 -97774680 1979706603 -2687160
            -1097074757 212877310 803392756 -1820797798</internalNodes>
          <leafValues>
            -1.8877753615379333e-01 3.1593039631843567e-01</leafValues></_>
        <_>
          <internalNodes>
            0 -1 5 -1970402816 -324891664 1733706368 2139007639
            196013351 2078177262 1811180015 1324278508</internalNodes>
          <leafValues>
            -7.2576457262039185e-01 8.7296657264232635e-02</leafValues></_>
        <_>
          <internalNodes>
            0 -1 20 -809388481 -895017606 -1315299249 1031599455
            146774228 -1629021916 197793392 -16493520</internalNodes>
          <leafValues>
            -3.1521481275558472e-01 1.8158523738384247e-01</leafValues></_>
        <_>
          <internalNodes>
            0 -1 30 -2140545481 602645716 -96414236 -1401646382
            726129782 1835963056 220743760 1294939623</internalNodes>
          <leafValues>
            -3.2830119132995605e-01 1.8118758499622345e-01</leafValues></_>
        <_>
          <internalNodes>
            0 -1 161 1462129641 -2040172933 532412313 -48530004
            1676146666 -2042644869 2004850665 234826958</internalNodes>
          <leafValues>
            -2.1940237283706665e-01 2.7259808778762817e-01</leafValues></_></weakClassifiers></_>
    <!-- stage 6 -->
    <_>
      <maxWeakCount>20</maxWeakCount>
      <stageThreshold>-3.0550453662872314e+00</stageThreshold>
      <weakClassifiers>
        <_>
          <internalNodes>
            0 -1 82 -547358721 -136322185 935007231 -134220961 -11535361
            -632651253 -143131649 -1</internalNodes>
          <leafValues>
            -8.5741192102432251e-01 -1.9827586412429810e-01</leafValues></_>
        <_>
          <internalNodes>
            0 -1 73 -815796289 -1950383857 290653055 500378655
            -1362101509 -1986837694 176366443 -1092769</internalNodes>
          <leafValues>
            -5.4516184329986572e-01 -7.2752468287944794e-02</leafValues></_>
        <_>
          <internalNodes>
            0 -1 96 761624377 488059514 -1666756129 2058369946
            1897355716 -1296793409 1490482844 1005205688</internalNodes>
          <leafValues>
            -3.8700720667839050e-01 1.4456959068775177e-01</leafValues></_>
        <_>
          <internalNodes>
            0 -1 134 338722769 -1373576226 1909642229 -68389960
            -346464519 -1078574904 1004158460 -2086800148</internalNodes>
          <leafValues>
            -3.8872691988945007e-01 1.6154704988002777e-01</leafValues></_>
        <_>
          <internalNodes>
            0 -1 137 -75792521 867827506 -134217995 -17760652 254351138
            -1997774862 959437989 136290255</internalNodes>
          <leafValues>
            -2.4747078120708466e-01 2.6668524742126465e-01</leafValues></_>
        <_>
          <internalNodes>
            0 -1 141 1657032038 915823156 1216561374 -1338804185
            373698117 189528591 1967168110 2004251495</internalNodes>
          <leafValues>
            -5.3934466838836670e-01 1.1071500182151794e-01</leafValues></_>
        <_>
          <internalNodes>
            0 -1 2 -990922245 -83990360 2146119668 369065459 -855789633
            -419448833 268366335 -1686127873</internalNodes>
          <leafValues>
            -2.1880544722080231e-01 2.9276686906814575e-01</leafValues></_>
        <_>
          <internalNodes>
            0 -1 120 735722549 -1614638202 617842638 -1352162425
            -918978799 -608839265 582892476 -286859434</internalNodes>
          <leafValues>
            -3.0192399024963379e-01 2.0496779680252075e-01</leafValues></_>
        <_>
          <internalNodes>
            0 -1 11 -1213181544 -426872236 -221579495 -944429898
            -605522464 485227175 -1024946911 135414345</internalNodes>
          <leafValues>
            -3.3708205819129944e-01 1.7688554525375366e-01</leafValues></_>
        <_>
          <internalNodes>
            0 -1 25 -1649913816 -1897082515 -1032961780 -279121569
            246334122 763006987 -1328762111 1334106980</internalNodes>
          <leafValues>
            -5.3599315881729126e-01 1.0788827389478683e-01</leafValues></_>
        <_>
          <internalNodes>
            0 -1 68 1192496909 500285037 613242269 534642519 805117260
            16552244 754483059 -1359331532</internalNodes>
          <leafValues>
            -3.4235799312591553e-01 1.8097184598445892e-01</leafValues></_>
        <_>
          <internalNodes>
            0 -1 165 956731468 607074919 1123820 621092685 -1360784428
            573840292 799321389 1963930904</internalNodes>
          <leafValues>
            -3.7374064326286316e-01 1.6202449798583984e-01</leafValues></_>
        <_>
          <internalNodes>
            0 -1 170 756903713 180481855 -406946399 716439390 251412339
            1329195967 1312769140 1147461920</internalNodes>
          <leafValues>
            -6.5734153985977173e-01 8.8899403810501099e-02</leafValues></_>
        <_>
          <internalNodes>
            0 -1 70 -4885322 431321011 1878449784 -1079714907 1582804214
            -1073909923 1954307255 -1786507889</internalNodes>
          <leafValues>
            -2.2439198195934296e-01 2.7628776431083679e-01</leafValues></_>
        <_>
          <internalNodes>
            0 -1 177 -430199214 -240779120 2113095280 487790840
            -619797534 671678465 1401327024 1453306082</internalNodes>
          <leafValues>
            -2.4406173825263977e-01 2.4208641052246094e-01</leafValues></_>
        <_>
          <internalNodes>
            0 -1 93 1049480614 -555632331 -2004877252 -1528028558
            2059958523 1028762179 2102338080 1307900778</internalNodes>
          <leafValues>
            -3.6288702487945557e-01 1.6642855107784271e-01</leafValues></_>
        <_>
          <internalNodes>
            0 -1 114 137236016 706789814 1201244156 -1361794074
            701569372 -612691776 2112779180 -772997200</internalNodes>
          <leafValues>
            -5.8015233278274536e-01 9.6362523734569550e-02</leafValues></_>
        <_>
          <internalNodes>
            0 -1 39 1666034479 626915135 -1425119707 1991762694
            1267945289 -70288803 1324348486 1892771174</internalNodes>
          <leafValues>
            -3.7602669000625610e-01 1.5709497034549713e-01</leafValues></_>
        <_>
          <internalNodes>
            0 -1 184 -1016533558 1354232636 1855610720 13653058
            186041280 41087230 -1551933568 61969040</internalNodes>
          <leafValues>
            -3.6451378464698792e-01 1.6231220960617065e-01</leafValues></_>
        <_>
          <internalNodes>
            0 -1 72 -212202207 -869107928 -1007915913 782352943
            -585905281 1583749307 -900015764 -4244840</internalNodes>
          <leafValues>
            -3.5234203934669495e-01 1.7415434122085571e-01</leafValues></_></weakClassifiers></_>
    <!-- stage 7 -->
    <_>
      <maxWeakCount>20</maxWeakCount>
      <stageThreshold>-2.4899878501892090e+00</stageThreshold>
      <weakClassifiers>
        <_>
          <internalNodes>
            0 -1 174 -4197654 -575803388 1095654362 -177745521
            -540021078 -804261846 -135289905 -7761</internalNodes>
          <leafValues>
            -8.6629337072372437e-01 -4.9478390812873840e-01</leafValues></_>
        <_>
          <internalNodes>
            0 -1 34 -107230737 1511873007 -1064943541 -39469823
            -775291905 1893261696 -1042100001 -537136887</internalNodes>
          <leafValues>
            -5.9252649545669556e-01 -1.2861040234565735e-01</leafValues></_>
        <_>
          <internalNodes>
            0 -1 65 710219483 -1249095695 2017836515 2136618683
            604852740 1708526111 -1118143526 2134050874</internalNodes>
          <leafValues>
            -3.1037005782127380e-01 2.0459476113319397e-01</leafValues></_>
        <_>
          <internalNodes>
            0 -1 17 1421042344 -356519509 -251530904 -870745355
            -623837851 -262276727 1339865537 1149631743</internalNodes>
          <leafValues>
            -3.7575387954711914e-01 1.5138494968414307e-01</leafValues></_>
        <_>
          <internalNodes>
            0 -1 41 136770000 -1076842024 -1589361775 -1251649387
            240710642 -2082740342 738358707 -881901365</internalNodes>
          <leafValues>
            -2.5511804223060608e-01 2.4806436896324158e-01</leafValues></_>
        <_>
          <internalNodes>
            0 -1 60 1096754696 927302250 1162510503 1942486726
            1918331487 1235338427 1970253893 1634115654</internalNodes>
          <leafValues>
            -3.4499976038932800e-01 1.7575258016586304e-01</leafValues></_>
        <_>
          <internalNodes>
            0 -1 99 398207997 1033433854 56962348 -1388671638 724053869
            146817171 1169296252 -221906370</internalNodes>
          <leafValues>
            -2.8912469744682312e-01 2.0069319009780884e-01</leafValues></_>
        <_>
          <internalNodes>
            0 -1 168 -1899823138 18333942 -1034384784 564576505
            -379876649 -1515395025 99279317 -1962951683</internalNodes>
          <leafValues>
            -2.7007302641868591e-01 2.1585889160633087e-01</leafValues></_>
        <_>
          <internalNodes>
            0 -1 132 -363542301 -2019372657 -758988518 -799816806
            1749187173 734562828 231721278 -1016602089</internalNodes>
          <leafValues>
            -3.4656971693038940e-01 1.7064248025417328e-01</leafValues></_>
        <_>
          <internalNodes>
            0 -1 33 915553402 -1638621396 1056964305 -110274591
            1599831293 -1686114324 1960777471 -848423923</internalNodes>
          <leafValues>
            -1.9218291342258453e-01 3.0846869945526123e-01</leafValues></_>
        <_>
          <internalNodes>
            0 -1 167 1229450442 103156148 789170083 235636012
            -1921540651 238408176 1102059504 702245019</internalNodes>
          <leafValues>
            -3.4366747736930847e-01 1.7745095491409302e-01</leafValues></_>
        <_>
          <internalNodes>
            0 -1 53 -116588386 -537163478 -1377555783 2099340903
            -159398230 345861207 -1067129733 -107016162</internalNodes>
          <leafValues>
            -1.6165044903755188e-01 3.7241113185882568e-01</leafValues></_>
        <_>
          <internalNodes>
            0 -1 111 -734994628 -1760238777 -2086172559 279634195
            1221142540 177115147 27394087 -813044934</internalNodes>
          <leafValues>
            -3.1552946567535400e-01 1.9140414893627167e-01</leafValues></_>
        <_>
          <internalNodes>
            0 -1 183 1235933123 -67143681 -17936640 28344213 201457054
            1555423143 -1073768565 1116990238</internalNodes>
          <leafValues>
            -2.2618044912815094e-01 2.5966539978981018e-01</leafValues></_>
        <_>
          <internalNodes>
            0 -1 37 15641725 720283165 1459282 1736237405 -1479703924
            -1786851240 1137330820 -809397742</internalNodes>
          <leafValues>
            -3.0537503957748413e-01 1.9819459319114685e-01</leafValues></_>
        <_>
          <internalNodes>
            0 -1 172 -185863256 -203827476 2074997753 1464204965
            -1286622840 34635714 -1839756609 -68428598</internalNodes>
          <leafValues>
            -1.2600964307785034e-01 4.9044579267501831e-01</leafValues></_>
        <_>
          <internalNodes>
            0 -1 166 1799506422 -1612985818 1385322719 609259740
            782105514 -1158768168 -590097979 -1880188768</internalNodes>
          <leafValues>
            -3.4413197636604309e-01 1.8178631365299225e-01</leafValues></_>
        <_>
          <internalNodes>
            0 -1 57 1682086000 571109839 -1055898876 -872132058
            -363234986 -1322170148 903278608 184282908</internalNodes>
          <leafValues>
            -5.0097179412841797e-01 1.1414271593093872e-01</leafValues></_>
        <_>
          <internalNodes>
            0 -1 94 1060640248 797258710 -1377892706 -1484815887
            284823501 -494370648 -556123270 2144271216</internalNodes>
          <leafValues>
            -3.6356288194656372e-01 1.6236303746700287e-01</leafValues></_>
        <_>
          <internalNodes>
            0 -1 190 -565253128 -612434013 1819626231 1472027955
            775218144 -10027362 1028700111 -1208737841</internalNodes>
          <leafValues>
            -1.8318222463130951e-01 3.3355158567428589e-01</leafValues></_></weakClassifiers></_>
    <!-- stage 8 -->
    <_>
      <maxWeakCount>20</maxWeakCount>
      <stageThreshold>-2.2397022247314453e+00</stageThreshold>
      <weakClassifiers>
        <_>
          <internalNodes>
            0 -1 88 -1 -111159297 601299839 -201852993 -344202497
            -393559909 -205521921 -1089</internalNodes>
          <leafValues>
            -8.5861951112747192e-01 -3.8896745443344116e-01</leafValues></_>
        <_>
          <internalNodes>
            0 -1 100 -646991397 -749340482 -116006820 2142171183
            1514629884 -1126770 -1663612177 -67438850</internalNodes>
          <leafValues>
            -5.4009228944778442e-01 -9.3807555735111237e-02</leafValues></_>
        <_>
          <internalNodes>
            0 -1 148 487129600 -353927714 -1013820047 -420062004
            448257942 -1955157464 443022585 502928892</internalNodes>
          <leafValues>
            -4.8565214872360229e-01 8.7840020656585693e-02</leafValues></_>
        <_>
          <internalNodes>
            0 -1 4 740295924 1165904812 -129958319 232876744 124258237
            -1884328663 38028143 245629005</internalNodes>
          <leafValues>
            -4.3188562989234924e-01 1.2380006164312363e-01</leafValues></_>
        <_>
          <internalNodes>
            0 -1 144 157820732 612671444 -1491631508 -1356695240
            1784954268 -152475236 -345483836 -319774908</internalNodes>
          <leafValues>
            -4.9242502450942993e-01 1.2713482975959778e-01</leafValues></_>
        <_>
          <internalNodes>
            0 -1 71 -605880277 -446750915 -1867091138 1009504517
            -754417305 -1616355087 -777865113 -8390097</internalNodes>
          <leafValues>
            -3.0881553888320923e-01 2.0723477005958557e-01</leafValues></_>
        <_>
          <internalNodes>
            0 -1 191 1080157180 -1619358635 -71918086 28322506 758445021
            -36011825 1038418354 196109462</internalNodes>
          <leafValues>
            -3.1273543834686279e-01 1.7834424972534180e-01</leafValues></_>
        <_>
          <internalNodes>
            0 -1 31 -1229856791 -156370192 1952019709 1327116722
            1418188885 -1053207780 860748250 1729985950</internalNodes>
          <leafValues>
            -2.6872172951698303e-01 2.1390974521636963e-01</leafValues></_>
        <_>
          <internalNodes>
            0 -1 126 762494909 673454356 -725615688 -152267912
            2072842455 1004339363 1540357100 -1730805900</internalNodes>
          <leafValues>
            -3.1439563632011414e-01 1.8065372109413147e-01</leafValues></_>
        <_>
          <internalNodes>
            0 -1 16 -860140271 -419531283 1502573118 1693901017
            -814948386 -1466915375 -473606028 -924468296</internalNodes>
          <leafValues>
            -3.0554813146591187e-01 1.8111543357372284e-01</leafValues></_>
        <_>
          <internalNodes>
            0 -1 181 -1680804976 -594452002 1494856572 1096495898
            -976110968 1268892248 -1643078998 429012616</internalNodes>
          <leafValues>
            -2.6990100741386414e-01 2.1014423668384552e-01</leafValues></_>
        <_>
          <internalNodes>
            0 -1 155 1040348595 888610888 -677798034 -1147278607
            801716829 -1680233585 -1212420691 -1359603212</internalNodes>
          <leafValues>
            -3.6001962423324585e-01 1.5188123285770416e-01</leafValues></_>
        <_>
          <internalNodes>
            0 -1 3 210249697 -651588694 -474881147 -1924144878
            -1908606217 -360809559 79079591 217971707</internalNodes>
          <leafValues>
            -3.8696455955505371e-01 1.4035442471504211e-01</leafValues></_>
        <_>
          <internalNodes>
            0 -1 160 -586320078 6698469 -1780137648 -29957908
            -2082494527 -1918665308 382950329 1238077228</internalNodes>
          <leafValues>
            -2.8023377060890198e-01 1.9447678327560425e-01</leafValues></_>
        <_>
          <internalNodes>
            0 -1 21 1736435463 2142101503 -136851738 -164626585
            1307410286 -2000918141 1023365956 1685578502</internalNodes>
          <leafValues>
            -3.0762559175491333e-01 1.7762450873851776e-01</leafValues></_>
        <_>
          <internalNodes>
            0 -1 98 -102432033 -1090568230 -1073960964 -1346617410
            -33718291 -54689795 -537428444 -1066130</internalNodes>
          <leafValues>
            -1.8372757732868195e-01 3.1252059340476990e-01</leafValues></_>
        <_>
          <internalNodes>
            0 -1 0 708317496 1783339016 1263514713 626860181 -469227010
            143649465 98202508 7739591</internalNodes>
          <leafValues>
            -4.8332443833351135e-01 1.1636412888765335e-01</leafValues></_>
        <_>
          <internalNodes>
            0 -1 123 1595527644 1929353334 473221835 -645343681
            1399220938 -844337668 136171943 1001938131</internalNodes>
          <leafValues>
            -2.1588744223117828e-01 2.6378023624420166e-01</leafValues></_>
        <_>
          <internalNodes>
            0 -1 185 -872679921 -1010829889 -73609181 99770119
            1940569039 1147857351 -723050609 1183178739</internalNodes>
          <leafValues>
            -2.5658476352691650e-01 2.1847426891326904e-01</leafValues></_>
        <_>
          <internalNodes>
            0 -1 133 -1078067242 -1095824046 1326856791 -1977762869
            1050609152 1356471096 -375059420 -589828758</internalNodes>
          <leafValues>
            -2.5551491975784302e-01 2.1986059844493866e-01</leafValues></_></weakClassifiers></_>
    <!-- stage 9 -->
    <_>
      <maxWeakCount>20</maxWeakCount>
      <stageThreshold>-2.3647627830505371e+00</stageThreshold>
      <weakClassifiers>
        <_>
          <internalNodes>
            0 -1 150 -786433 -211816041 -1932608401 -986978849
            -2109135377 -355606012 -1026738770 -69211153</internalNodes>
          <leafValues>
            -8.6910891532897949e-01 -5.7173222303390503e-01</leafValues></_>
        <_>
          <internalNodes>
            0 -1 91 -814221321 -1076941302 -632806057 -1086641662
            -526136583 -905150190 769350015 -4752613</internalNodes>
          <leafValues>
            -5.1098412275314331e-01 -5.3062561899423599e-02</leafValues></_>
        <_>
          <internalNodes>
            0 -1 85 1256822679 520038303 -1622601313 2144631903
            2108174709 -67758049 -645321833 2132424478</internalNodes>
          <leafValues>
            -3.1972742080688477e-01 1.6445371508598328e-01</leafValues></_>
        <_>
          <internalNodes>
            0 -1 187 1690107761 964443759 -749898387 234169716
            -1563099137 -1460093305 787873725 775257719</internalNodes>
          <leafValues>
            -2.7436855435371399e-01 1.8797339498996735e-01</leafValues></_>
        <_>
          <internalNodes>
            0 -1 140 135921744 871633973 -1099882754 1051819468
            263493085 1608152542 73542571 1060765880</internalNodes>
          <leafValues>
            -4.0907549858093262e-01 1.2598161399364471e-01</leafValues></_>
        <_>
          <internalNodes>
            0 -1 90 1593857137 -1101186258 -1736269263 -1753532623
            -21073940 -1147221398 1283062250 1002375434</internalNodes>
          <leafValues>
            -2.2760866582393646e-01 2.3583468794822693e-01</leafValues></_>
        <_>
          <internalNodes>
            0 -1 24 -1590147911 1785378196 -481591980 -2145787367
            -1449371155 -897404407 1143735568 139594004</internalNodes>
          <leafValues>
            -4.3732950091362000e-01 1.3406462967395782e-01</leafValues></_>
        <_>
          <internalNodes>
            0 -1 104 -1048577 -1079005212 628722768 -1406816608
            1744256975 754876403 -1124187098 -1121418</internalNodes>
          <leafValues>
            -1.9721843302249908e-01 2.8707358241081238e-01</leafValues></_>
        <_>
          <internalNodes>
            0 -1 173 -249724776 -114639680 1021831204 -250140872
            -2033203512 1330017385 533046942 1671411098</internalNodes>
          <leafValues>
            -1.7923998832702637e-01 3.1435203552246094e-01</leafValues></_>
        <_>
          <internalNodes>
            0 -1 38 760156013 905232309 -1579238652 788527418 2045713903
            1734584779 1257187668 2102431713</internalNodes>
          <leafValues>
            -4.0646770596504211e-01 1.4569763839244843e-01</leafValues></_>
        <_>
          <internalNodes>
            0 -1 83 520261542 1834443527 718408477 -1812074600 554191855
            -1471610239 -706760089 2013096243</internalNodes>
          <leafValues>
            -3.2337781786918640e-01 1.7331585288047791e-01</leafValues></_>
        <_>
          <internalNodes>
            0 -1 125 2067232800 1360134674 -1073605760 1360015540
            464289597 -366005847 1794627996 1779973520</internalNodes>
          <leafValues>
            -5.1039510965347290e-01 1.0303427278995514e-01</leafValues></_>
        <_>
          <internalNodes>
            0 -1 192 771030806 266271615 -689449428 775094250 1029001183
            1938642047 1324037909 1278487877</internalNodes>
          <leafValues>
            -5.3110963106155396e-01 9.2903748154640198e-02</leafValues></_>
        <_>
          <internalNodes>
            0 -1 58 1484764274 1534036849 -1483908934 -137468490
            559119884 -1890108640 220596773 -150314698</internalNodes>
          <leafValues>
            -2.4972774088382721e-01 2.0880608260631561e-01</leafValues></_>
        <_>
          <internalNodes>
            0 -1 29 -1404506412 785650876 1103712869 -673252398
            1776081052 151459853 746632556 2031422516</internalNodes>
          <leafValues>
            -3.3088576793670654e-01 1.6265094280242920e-01</leafValues></_>
        <_>
          <internalNodes>
            0 -1 175 -69739302 -173459724 -361661775 -779016502
            -1352933432 -591999680 -162100257 -1073761106</internalNodes>
          <leafValues>
            -1.1035743355751038e-01 4.9298667907714844e-01</leafValues></_>
        <_>
          <internalNodes>
            0 -1 76 1359481632 333918240 549888796 -1734773504
            1484259628 1489879191 1480830982 792404749</internalNodes>
          <leafValues>
            -6.6056990623474121e-01 8.7434589862823486e-02</leafValues></_>
        <_>
          <internalNodes>
            0 -1 142 -406848005 787939327 763133951 -286071705 -4767784
            -1073774593 -287867336 -453581130</internalNodes>
          <leafValues>
            -1.9401088356971741e-01 3.0026718974113464e-01</leafValues></_>
        <_>
          <internalNodes>
            0 -1 186 8156933 103109095 1585905321 36778357 -952486091
            -1444614741 233788277 213141829</internalNodes>
          <leafValues>
            -5.9997975826263428e-01 9.1470822691917419e-02</leafValues></_>
        <_>
          <internalNodes>
            0 -1 7 83373862 -904297944 -480702187 1298968882 1618672399
            -807759607 -1945501802 1694357455</internalNodes>
          <leafValues>
            -4.8598721623420715e-01 1.0218475759029388e-01</leafValues></_></weakClassifiers></_></stages>
  <features>
    <_>
      <rect>
        0 0 5 5</rect></_>
    <_>
      <rect>
        0 0 5 10</rect></_>
    <_>
      <rect>
        0 0 7 7</rect></_>
    <_>
      <rect>
        0 0 8 9</rect></_>
    <_>
      <rect>
        0 0 9 4</rect></_>
    <_>
      <rect>
        0 0 10 9</rect></_>
    <_>
      <rect>
        0 0 11 6</rect></_>
    <_>
      <rect>
        0 1 8 9</rect></_>
    <_>
      <rect>
        0 1 12 8</rect></_>
    <_>
      <rect>
        0 4 12 10</rect></_>
    <_>
      <rect>
        0 5 9 9</rect></_>
    <_>
      <rect>
        0 6 4 3</rect></_>
    <_>
      <rect>
        0 7 8 5</rect></_>
    <_>
      <rect>
        0 8 7 9</rect></_>
    <_>
      <rect>
        0 9 7 8</rect></_>
    <_>
      <rect>
        0 11 6 6</rect></_>
    <_>
      <rect>
        0 14 4 4</rect></_>
    <_>
      <rect>
        0 15 5 3</rect></_>
    <_>
      <rect>
        0 21 11 3</rect></_>
    <_>
      <rect>
        0 24 5 3</rect></_>
    <_>
      <rect>
        0 25 3 3</rect></_>
    <_>
      <rect>
        0 33 2 1</rect></_>
    <_>
      <rect>
        1 0 11 8</rect></_>
    <_>
      <rect>
        1 2 7 7</rect></_>
    <_>
      <rect>
        1 5 3 3</rect></_>
    <_>
      <rect>
        1 9 5 9</rect></_>
    <_>
      <rect>
        1 9 6 4</rect></_>
    <_>
      <rect>
        1 9 6 6</rect></_>
    <_>
      <rect>
        1 15 1 1</rect></_>
    <_>
      <rect>
        1 23 3 4</rect></_>
    <_>
      <rect>
        1 23 5 3</rect></_>
    <_>
      <rect>
        1 24 7 4</rect></_>
    <_>
      <rect>
        2 0 9 10</rect></_>
    <_>
      <rect>
        2 0 11 3</rect></_>
    <_>
      <rect>
        2 5 11 6</rect></_>
    <_>
      <rect>
        2 9 11 9</rect></_>
    <_>
      <rect>
        2 14 4 7</rect></_>
    <_>
      <rect>
        2 16 4 5</rect></_>
    <_>
      <rect>
        2 32 1 1</rect></_>
    <_>
      <rect>
        2 33 2 1</rect></_>
    <_>
      <rect>
        3 0 8 8</rect></_>
    <_>
      <rect>
        3 1 6 5</rect></_>
    <_>
      <rect>
        3 2 11 7</rect></_>
    <_>
      <rect>
        4 22 4 2</rect></_>
    <_>
      <rect>
        4 33 1 1</rect></_>
    <_>
      <rect>
        5 0 5 5</rect></_>
    <_>
      <rect>
        5 0 8 4</rect></_>
    <_>
      <rect>
        5 0 9 12</rect></_>
    <_>
      <rect>
        5 10 4 4</rect></_>
    <_>
      <rect>
        5 23 4 3</rect></_>
    <_>
      <rect>
        5 29 4 2</rect></_>
    <_>
      <rect>
        5 30 4 2</rect></_>
    <_>
      <rect>
        6 7 10 6</rect></_>
    <_>
      <rect>
        6 8 1 1</rect></_>
    <_>
      <rect>
        6 8 7 5</rect></_>
    <_>
      <rect>
        6 22 4 2</rect></_>
    <_>
      <rect>
        6 24 6 4</rect></_>
    <_>
      <rect>
        6 24 10 3</rect></_>
    <_>
      <rect>
        6 27 1 1</rect></_>
    <_>
      <rect>
        6 27 2 1</rect></_>
    <_>
      <rect>
        6 33 1 1</rect></_>
    <_>
      <rect>
        7 0 7 3</rect></_>
    <_>
      <rect>
        7 0 9 4</rect></_>
    <_>
      <rect>
        7 11 4 4</rect></_>
    <_>
      <rect>
        7 25 1 1</rect></_>
    <_>
      <rect>
        7 27 4 2</rect></_>
    <_>
      <rect>
        8 9 6 4</rect></_>
    <_>
      <rect>
        8 24 2 3</rect></_>
    <_>
      <rect>
        8 31 1 1</rect></_>
    <_>
      <rect>
        9 0 6 9</rect></_>
    <_>
      <rect>
        9 3 6 3</rect></_>
    <_>
      <rect>
        9 3 9 7</rect></_>
    <_>
      <rect>
        9 7 9 5</rect></_>
    <_>
      <rect>
        9 8 4 5</rect></_>
    <_>
      <rect>
        9 22 3 1</rect></_>
    <_>
      <rect>
        10 0 7 6</rect></_>
    <_>
      <rect>
        10 2 8 6</rect></_>
    <_>
      <rect>
        10 3 4 3</rect></_>
    <_>
      <rect>
        10 5 7 6</rect></_>
    <_>
      <rect>
        10 6 6 6</rect></_>
    <_>
      <rect>
        10 9 5 2</rect></_>
    <_>
      <rect>
        10 9 5 4</rect></_>
    <_>
      <rect>
        10 9 5 5</rect></_>
    <_>
      <rect>
        10 11 5 4</rect></_>
    <_>
      <rect>
        10 15 8 5</rect></_>
    <_>
      <rect>
        10 23 2 2</rect></_>
    <_>
      <rect>
        10 26 7 3</rect></_>
    <_>
      <rect>
        11 0 8 8</rect></_>
    <_>
      <rect>
        11 8 5 5</rect></_>
    <_>
      <rect>
        11 19 3 1</rect></_>
    <_>
      <rect>
        12 0 8 5</rect></_>
    <_>
      <rect>
        12 9 2 4</rect></_>
    <_>
      <rect>
        12 10 4 3</rect></_>
    <_>
      <rect>
        12 11 4 3</rect></_>
    <_>
      <rect>
        12 15 4 3</rect></_>
    <_>
      <rect>
        12 20 4 1</rect></_>
    <_>
      <rect>
        12 25 3 1</rect></_>
    <_>
      <rect>
        13 11 6 4</rect></_>
    <_>
      <rect>
        13 15 1 2</rect></_>
    <_>
      <rect>
        13 15 3 2</rect></_>
    <_>
      <rect>
        13 22 1 1</rect></_>
    <_>
      <rect>
        13 22 6 4</rect></_>
    <_>
      <rect>
        14 7 1 1</rect></_>
    <_>
      <rect>
        14 12 3 3</rect></_>
    <_>
      <rect>
        14 13 2 2</rect></_>
    <_>
      <rect>
        14 15 2 1</rect></_>
    <_>
      <rect>
        14 20 1 1</rect></_>
    <_>
      <rect>
        14 24 1 1</rect></_>
    <_>
      <rect>
        14 26 1 1</rect></_>
    <_>
      <rect>
        15 7 1 1</rect></_>
    <_>
      <rect>
        15 7 7 6</rect></_>
    <_>
      <rect>
        15 8 4 4</rect></_>
    <_>
      <rect>
        15 9 7 9</rect></_>
    <_>
      <rect>
        15 11 2 2</rect></_>
    <_>
      <rect>
        15 17 3 2</rect></_>
    <_>
      <rect>
        15 18 2 1</rect></_>
    <_>
      <rect>
        16 5 6 5</rect></_>
    <_>
      <rect>
        16 10 1 1</rect></_>
    <_>
      <rect>
        16 10 3 3</rect></_>
    <_>
      <rect>
        16 13 2 1</rect></_>
    <_>
      <rect>
        16 17 1 1</rect></_>
    <_>
      <rect>
        16 24 1 1</rect></_>
    <_>
      <rect>
        16 26 2 1</rect></_>
    <_>
      <rect>
        17 2 2 1</rect></_>
    <_>
      <rect>
        17 12 2 2</rect></_>
    <_>
      <rect>
        17 13 6 7</rect></_>
    <_>
      <rect>
        17 18 3 2</rect></_>
    <_>
      <rect>
        17 19 1 1</rect></_>
    <_>
      <rect>
        17 20 4 3</rect></_>
    <_>
      <rect>
        18 7 6 5</rect></_>
    <_>
      <rect>
        18 11 2 3</rect></_>
    <_>
      <rect>
        18 13 5 3</rect></_>
    <_>
      <rect>
        18 13 6 3</rect></_>
    <_>
      <rect>
        18 15 1 1</rect></_>
    <_>
      <rect>
        18 19 2 2</rect></_>
    <_>
      <rect>
        18 20 1 1</rect></_>
    <_>
      <rect>
        18 21 5 2</rect></_>
    <_>
      <rect>
        18 23 5 3</rect></_>
    <_>
      <rect>
        18 24 3 1</rect></_>
    <_>
      <rect>
        18 26 3 2</rect></_>
    <_>
      <rect>
        18 30 1 1</rect></_>
    <_>
      <rect>
        19 8 5 4</rect></_>
    <_>
      <rect>
        19 13 2 2</rect></_>
    <_>
      <rect>
        19 15 3 4</rect></_>
    <_>
      <rect>
        19 18 1 1</rect></_>
    <_>
      <rect>
        19 20 1 1</rect></_>
    <_>
      <rect>
        19 21 1 1</rect></_>
    <_>
      <rect>
        19 22 1 1</rect></_>
    <_>
      <rect>
        19 25 2 2</rect></_>
    <_>
      <rect>
        19 31 1 1</rect></_>
    <_>
      <rect>
        20 8 2 4</rect></_>
    <_>
      <rect>
        20 16 1 1</rect></_>
    <_>
      <rect>
        20 18 1 1</rect></_>
    <_>
      <rect>
        20 19 1 1</rect></_>
    <_>
      <rect>
        20 21 2 1</rect></_>
    <_>
      <rect>
        20 24 1 1</rect></_>
    <_>
      <rect>
        20 24 5 3</rect></_>
    <_>
      <rect>
        21 6 5 8</rect></_>
    <_>
      <rect>
        21 24 2 1</rect></_>
    <_>
      <rect>
        21 26 5 3</rect></_>
    <_>
      <rect>
        21 28 4 2</rect></_>
    <_>
      <rect>
        21 29 3 1</rect></_>
    <_>
      <rect>
        22 1 4 5</rect></_>
    <_>
      <rect>
        22 22 3 3</rect></_>
    <_>
      <rect>
        22 23 2 1</rect></_>
    <_>
      <rect>
        22 31 1 1</rect></_>
    <_>
      <rect>
        23 22 1 1</rect></_>
    <_>
      <rect>
        23 31 3 1</rect></_>
    <_>
      <rect>
        26 24 1 1</rect></_>
    <_>
      <rect>
        26 24 2 1</rect></_>
    <_>
      <rect>
        28 33 1 1</rect></_>
    <_>
      <rect>
        30 6 2 1</rect></_>
    <_>
      <rect>
        30 7 1 1</rect></_>
    <_>
      <rect>
        30 10 1 1</rect></_>
    <_>
      <rect>
        30 12 1 1</rect></_>
    <_>
      <rect>
        30 13 1 1</rect></_>
    <_>
      <rect>
        30 14 1 1</rect></_>
    <_>
      <rect>
        30 22 1 1</rect></_>
    <_>
      <rect>
        30 29 1 1</rect></_>
    <_>
      <rect>
        30 31 1 1</rect></_>
    <_>
      <rect>
        30 33 1 1</rect></_>
    <_>
      <rect>
        31 7 1 1</rect></_>
    <_>
      <rect>
        31 17 1 1</rect></_>
    <_>
      <rect>
        31 27 1 1</rect></_>
    <_>
      <rect>
        31 28 1 1</rect></_>
    <_>
      <rect>
        31 33 1 1</rect></_>
    <_>
      <rect>
        32 27 1 1</rect></_>
    <_>
      <rect>
        32 31 1 1</rect></_>
    <_>
      <rect>
        32 33 1 1</rect></_>
    <_>
      <rect>
        33 5 1 1</rect></_>
    <_>
      <rect>
        33 15 1 1</rect></_>
    <_>
      <rect>
        33 22 1 1</rect></_>
    <_>
      <rect>
        33 32 1 1</rect></_>
    <_>
      <rect>
        33 33 1 1</rect></_></features></cascade>
</opencv_storage>
